<?xml version="1.0"?>
<opencv_storage>
<my_nn type_id="opencv-ml-ann-mlp">
  <layer_sizes type_id="opencv-matrix">
    <rows>1</rows>
    <cols>4</cols>
    <dt>i</dt>
    <data>
      20 20 20 10</data></layer_sizes>
  <activation_function>SIGMOID_SYM</activation_function>
  <f_param1>1.</f_param1>
  <f_param2>1.</f_param2>
  <min_val>-9.4999999999999996e-01</min_val>
  <max_val>9.4999999999999996e-01</max_val>
  <min_val1>-9.7999999999999998e-01</min_val1>
  <max_val1>9.7999999999999998e-01</max_val1>
  <training_params>
    <train_method>BACKPROP</train_method>
    <dw_scale>1.0000000000000000e-03</dw_scale>
    <moment_scale>1.0000000000000001e-01</moment_scale>
    <term_criteria><epsilon>9.9999997473787516e-05</epsilon>
      <iterations>10000</iterations></term_criteria></training_params>
  <input_scale>
    1. -2. 3.1228139039846816e+00 -2.0857216180089795e+00
    6.1922662669423518e+00 -2.0136251436934787e+00
    8.2396961764208729e+00 -2.2372640637957666e+00
    8.6701541420782338e+00 -2.2095075898635379e+00
    8.6747033000770823e+00 -1.5498948369669772e+00
    1.2960007934552179e+01 -1.5062362917659882e+00
    1.9095753100701380e+01 -1.4967542502620081e+00
    2.7962589571215283e+01 -1.7117452577963046e+00
    3.9288242612050020e+01 -1.9131936220952819e+00
    4.5979230124897505e+01 -1.8903598850911332e+00
    4.8793874122427674e+01 -1.8590855495053333e+00
    5.2146362419718152e+01 -1.7509651417782295e+00
    6.3924156466129617e+01 -1.8247665436345561e+00
    7.2209837426177003e+01 -1.9329682719727219e+00
    7.3404990142657923e+01 -1.8112988566609256e+00
    7.3073089836115642e+01 -1.6678926928816140e+00
    8.5158036176384599e+01 -1.7512369527066205e+00
    1.0093023039676908e+02 -1.7658221466668149e+00
    1.0575373718890873e+02 -1.7026436463059860e+00</input_scale>
  <output_scale>
    5.2631578947368418e-01 4.9999999999999994e-01 5.2631578947368418e-01
    4.9999999999999994e-01 5.2631578947368418e-01 4.9999999999999994e-01
    5.2631578947368418e-01 4.9999999999999994e-01 5.2631578947368418e-01
    4.9999999999999994e-01 5.2631578947368418e-01 4.9999999999999994e-01
    5.2631578947368418e-01 4.9999999999999994e-01 5.2631578947368418e-01
    4.9999999999999994e-01 5.2631578947368418e-01 4.9999999999999994e-01
    5.2631578947368418e-01 4.9999999999999994e-01</output_scale>
  <inv_output_scale>
    1.8999999999999999e+00 -9.4999999999999996e-01
    1.8999999999999999e+00 -9.4999999999999996e-01
    1.8999999999999999e+00 -9.4999999999999996e-01
    1.8999999999999999e+00 -9.4999999999999996e-01
    1.8999999999999999e+00 -9.4999999999999996e-01
    1.8999999999999999e+00 -9.4999999999999996e-01
    1.8999999999999999e+00 -9.4999999999999996e-01
    1.8999999999999999e+00 -9.4999999999999996e-01
    1.8999999999999999e+00 -9.4999999999999996e-01
    1.8999999999999999e+00 -9.4999999999999996e-01</inv_output_scale>
  <weights>
    <_>
      -9.7655092371915345e-02 -9.9849368012629985e-03
      8.2510189957811300e-02 8.2128646983982423e-03
      -8.5610163259184580e-02 -7.5714098849679196e-02
      -7.0261216525828188e-02 6.8762790904499618e-02
      -7.3811185028011678e-02 -8.6962986891662101e-03
      -4.8887508806997118e-02 2.0525420411104736e-02
      6.4504752688830422e-02 5.9038608013363615e-02
      2.1103079291619507e-02 8.6482613285384660e-02
      4.0885288104642654e-02 -6.6710238364837554e-02
      8.0072082574015394e-02 -6.1955351965495134e-02
      9.3961032017394985e-01 -4.2941575886258943e-01
      1.3263433344334297e+00 4.8468882631405591e-01
      -4.0538007518376296e-01 -1.5539395815715851e-01
      -6.3626110280725823e-01 3.2095121936941928e-01
      3.1243164475689039e-01 1.4942703653748585e-01
      2.6670842834508418e-01 1.3700382397626645e+00
      -9.7740179581447817e-01 -5.5601481161508182e-01
      5.3940362200439818e-01 1.5183861174979050e-02
      -9.8562327627886775e-02 -9.5124306318668983e-01
      -1.4828444382429887e-01 -1.5357232603054538e+00
      -1.8111308012208813e+00 -7.8313468056088364e-01
      -1.3097371544754186e+00 -4.0970033741372987e-02
      -1.1679513076460303e-01 1.8926185518547900e-01
      9.4575963711350922e-02 1.2185881540721492e-01
      1.3810866713469167e-01 1.2476239728936964e+00
      -2.9084048112502519e-02 1.6189699638000390e-01
      9.8451481711485322e-01 9.7793776854390135e-01
      -6.8382868132967689e-01 -6.5532265727991923e-01
      3.1203826017317790e-02 7.2175475161138969e-01
      2.2172547155590425e-01 -1.0689150853187050e+00
      -3.2489376142131823e+00 1.3987662029911483e+00
      -1.6328935679327419e+00 -9.1367179020866052e-02
      -1.0286031087774138e-01 4.5600335575064571e-01
      -5.3347524597549512e-01 2.6493604504867728e-02
      8.5891873322767029e-02 -4.1055724567145646e-01
      -3.3264312251147754e-01 1.1067879240366902e+00
      2.5872614820220052e-01 9.7482605790653221e-01
      6.0599618552812484e-01 -9.1734782021650085e-01
      2.9595097998148279e-01 7.6725501079945413e-01
      7.3259560111043842e-01 3.9206430022311406e-01
      -8.4813395572105799e-01 -9.0652215919046497e-01
      3.0561693595594586e-01 -8.1572657879115673e-01
      -1.7580436054098897e-01 -1.2278212758049749e-01
      1.0466758106769571e+00 1.4291913135354586e-01
      6.0577044535861324e-01 -8.5009634706920090e-01
      -5.6599680388164275e-01 9.4893773689752936e-01
      1.7976472233315002e+00 -7.0519091332325715e-02
      -2.1648442247231246e-02 2.5088553259665947e-01
      -2.5248226012644798e-01 -8.7787986298032672e-01
      -5.5378453057841914e-01 1.2674052005051453e-01
      5.4812897079482681e-01 1.3932613844987221e-02
      1.3279621279197116e+00 -9.7726564831422758e-01
      -6.4422572157099123e-01 1.0651108963640183e+00
      -9.1257285909162111e-01 -9.1586762722026460e-01
      1.0475892130173876e+00 -6.2017025229098288e-01
      -3.4203150256951215e-01 1.2754398471161721e-01
      9.3865324712551690e-01 -5.2819038001315155e-01
      -1.0664430796922499e-01 4.5772013896522451e-01
      3.7004064991685198e-01 1.0323983141746578e+00
      6.0300355487730639e-01 -6.3380373793263112e-02
      1.8726858486852060e+00 3.7466572430029121e-01
      1.1307843017950288e-01 -6.3858315500660712e-01
      -2.9881047075892803e-01 2.0508915962863095e-01
      -2.5554894800930283e-01 -4.0793103832068300e-02
      2.6845294908293588e-01 -1.0366217603639660e+00
      3.2970018847623928e-01 -2.8977490233945197e-01
      -2.2569751679230210e-01 5.7606460789956307e-03
      4.0210915614625320e-01 6.7700373285611537e-01
      -1.7030498460240437e-01 -7.7609103316074768e-01
      -1.8488017137323115e-01 -7.3538650467652400e-01
      1.4524641383439214e+00 -8.6378567416948937e-02
      -6.7353415814948125e-01 -2.6344017696478644e-01
      -1.5772330208506080e-01 1.8362024111840086e-01
      1.2730431233553507e-01 4.2953261731888980e-02
      1.4644455059311317e-02 3.8205808511019523e-01
      1.6979218229763374e-01 -3.8402857732045458e-02
      -4.6927699503640924e-01 -5.7373279132605044e-02
      -5.2960836142005800e-02 6.7053378296997335e-01
      1.2744302516807079e-01 2.4669170576543867e-01
      4.6839060266312960e-01 -1.7312602374747296e-01
      1.8531576345089920e-01 1.1919499293016531e+00
      -1.7575948969178401e-01 3.8548573395349067e-01
      2.5257207699101447e-01 2.4437185296378134e-02
      -4.0004347366998289e-01 -2.4472103912668078e-01
      1.7233152522350201e-01 -2.9576486178197009e-01
      3.1772723775581496e-01 3.3452646062864905e-01
      1.2826070451950936e-01 1.3489110366506973e-01
      8.8361242332755729e-01 -9.6261391317533029e-02
      5.1008753665036610e-01 1.0153330565507153e+00
      1.1508806208515661e+00 -1.2617721393244319e-01
      5.2067070173630681e-01 2.4902860908326765e-01
      -4.1873865708193936e-01 9.6650458904191869e-02
      3.7024198236419281e-01 -8.3180155140905460e-02
      4.2968846454000398e-02 2.3791168198727894e-01
      -2.7119931211507581e-01 -1.5261763948622753e-01
      5.7289046508680030e-01 -2.9635997079338394e-02
      4.4306348148881802e-01 -1.8231902185600124e-01
      5.3743773385606361e-02 1.4776013050171286e-01
      -5.0529643368541557e-02 2.6918618256113203e-01
      3.8891415310192223e-01 -2.6170591027052847e-01
      2.1630070090567948e+00 1.0311879089784451e-01
      -6.0121793455405648e-01 3.8424616537090167e-01
      2.3546766180632686e-01 -1.8125067727352492e-01
      -9.7898416888784159e-02 3.2857107449832418e-02
      9.0226631473018584e-02 -1.8448152857356984e-01
      -2.6020658814053599e-01 1.2914193360871853e-01
      4.1147917240020537e-02 6.3006366487821097e-01
      4.3326097795229146e-01 1.6054216962425374e-01
      1.1297762099283090e-01 3.8833151579083569e-01
      3.4815262821905202e-01 -7.1296183376815780e-01
      4.1911298736205499e-01 -6.3812245335049908e-02
      -7.1471318294071084e-01 2.5664587530872535e-01
      -1.6589008494452226e-01 -2.6545426692553952e-02
      -2.8926161875841566e-01 -8.7928379830283426e-02
      5.4873080462017332e-01 6.5979436366464181e-03
      -1.0248873524599060e+00 4.6392446708416135e-01
      -1.0039521772541224e-01 1.2769359924132648e-01
      1.9333305986436994e-01 5.0326141842459127e-01
      1.9175289460590039e-01 3.7226088580278122e-02
      -5.3412492679724970e-02 -3.1018097482409701e-01
      7.3686106955366015e-01 2.5972086517399190e-01
      -3.5064759356378900e-01 4.6575881362344883e-02
      -2.8788683106543853e-02 -5.1569766682029605e-01
      5.9710539629500303e-01 6.9814136376708446e-03
      1.5359367277139857e-01 -1.0994412090052368e-03
      -6.9394875495130653e-02 -7.2706022052209285e-01
      -6.2251534890841720e-01 2.5639887825453761e-01
      4.2587921225564757e-01 5.6715010339866634e-01
      1.0982772093805789e-01 8.8894651789130652e-01
      5.3149740299942294e-01 -4.2542055169770221e-01
      -1.1446494118596764e+00 -2.6652119978299005e-01
      -2.9425525161434329e-02 -1.6557348749922451e-01
      -1.5102903146280375e-01 -4.9550094851281196e-01
      -7.9942050977426168e-02 -2.2337979347031267e-01
      -4.2109228648109126e-01 3.0555329332714976e-01
      -2.6708606928320989e-02 5.9707917697988089e-01
      8.6391240061036753e-02 -4.7656921676349939e-01
      -9.2864424309701557e-02 -2.0952181416969171e-01
      8.0323193122354239e-02 2.8291570746124978e-01
      -3.7908838399113370e-01 -3.7708361610996673e-02
      7.2410420259736819e-01 -3.0499991537016907e-01
      -1.0500855793400436e-01 1.0876010953357861e-01
      2.0453500313905795e-01 -1.0425581404863174e-01
      -2.1859687209058246e-02 1.0526332138827911e-01
      4.0192258600425446e-01 4.9489984695368007e-02
      -3.6700963144876603e-01 -1.3801271327837486e-01
      1.1952665140089486e-01 8.5202435082282840e-02
      4.3201362796063895e-02 3.0841485065744915e-02
      -7.4364261369077395e-02 -1.8840365466515333e-01
      2.3053144458229050e-02 1.6199491482731729e-01
      1.8426523380463414e-01 -2.6660060103438588e-01
      -1.0596311657191759e-01 1.7346077261449994e-01
      2.7521497842637727e-01 -7.0952684164081636e-01
      8.9144480311087748e-01 1.8625775436800066e-01
      -5.3272379710667650e-01 -2.0391226652962557e-01
      2.9744833196029713e-01 2.6311780795805495e-01
      5.2741146583410414e-01 -5.4131312934521270e-01
      7.2150885302470402e-01 1.4375321486493600e-01
      -2.0581707973159022e-01 -2.7808480281115289e-01
      -1.7172919219916527e-01 -1.9077658418192792e-01
      -3.0077954212843194e-01 5.4982749016190019e-02
      1.6767142081483377e-01 -3.5959974148477775e-01
      -1.9224563603032779e-01 1.3251812051766792e-02
      6.8516661458818573e-01 3.6752872924656033e-01
      -1.9963824889220358e-01 -1.0913927722180933e-02
      4.9202532064234011e-01 9.8970337231450600e-01
      -5.0050174315218486e-02 -7.8495690678658381e-01
      4.2145139904409590e-01 1.7866501175888030e-01
      1.1471721934523098e-01 1.1986864268903299e+00
      6.7795030137015366e-01 -2.5603693258679611e-01
      -1.5473384131972909e-03 -3.1013521986565767e-01
      2.5057630346441989e-01 1.3656692735295722e-01
      1.5145544911643827e-01 7.2856735727870492e-02
      8.8680443508006634e-02 -2.2239187514699676e-01
      3.3001119151748237e-01 -7.1660881761525658e-02
      -1.0062837627879262e-02 8.8954639629907961e-01
      5.0860754914730377e-01 2.8758851897680449e-01
      -1.1840440603968426e-02 8.6191867784182932e-02
      2.6498970926762816e-01 8.9864414590421748e-01
      3.3906062687300026e-01 -4.6937963432674251e-01
      -1.4067368235101871e+00 -4.3232415294233778e-01
      3.5379402959454370e-01 1.0326224621485573e-01
      2.4589081734546053e-01 -4.5441519692766452e-01
      -3.9796155257668442e-01 3.5156509692610492e-02
      5.1934679082536916e-01 2.1895529546747824e-02
      -2.0619731906802188e-01 3.4332871863443210e-01
      2.6059154124990797e-01 -5.1651170831550741e-01
      -8.1049848251557158e-02 -7.4027944200327725e-02
      2.7755728229153265e-01 1.9819576852054180e-01
      -1.6105082711914620e-01 -4.1128008339193051e-01
      -1.3831999451013262e+00 1.4872762481150464e-02
      -1.6161440692777218e-01 -1.7506502415955524e-01
      -3.9115403198403093e-02 -1.8658546069091492e-01
      -1.0787508158685821e-01 3.3611323641253305e-01
      4.5113268579569382e-01 -2.7235656123599673e-02
      4.3370819013197148e-01 -6.4178283957838111e-01
      -1.8374404242410097e-01 4.5758024456314977e-01
      -4.3316129006934823e-01 1.8073936885563391e-01
      -1.3021880588665238e-01 9.3513376245981980e-02
      -5.4899455124855334e-02 -2.7027883605921743e-01
      3.9693366661817764e-01 1.8214024004334117e-01
      2.5705500880544192e-02 2.7924946725992250e-01
      5.9147421248387932e-01 -1.0281780459259078e-01
      -3.1234430783846906e-01 2.1638832721548079e-01
      2.6015431660097832e-01 -4.0749462182820306e-01
      -2.2620774265002219e-01 1.0705549241560912e+00
      3.4002396575901700e-01 -2.6132131099158212e-01
      5.8056212325739887e-01 1.5787394151953489e+00
      4.7106258222586642e-02 -2.5024578814770421e-01
      2.6142492973023163e-01 1.7924670811247181e-01</_>
    <_>
      1.2818898785285084e+00 6.1236563833672242e-01
      7.0903370829901025e-01 -3.0902763547582729e-01
      1.5160285386306305e-02 2.3024399876592205e-01
      6.1919506828183901e-01 1.5655362484235219e-01
      -7.4872928708071973e-01 6.3198117810634358e-01
      -2.4940277785692688e-01 -7.3285578544280028e-01
      -6.7327076181245515e-01 -3.2079331501002034e-01
      8.3535576500734066e-02 1.3868918846553319e-01
      3.9146158017449806e-01 -4.9967844540212963e-01
      1.7354256741811308e-01 -7.1328948952909402e-03
      1.3369271474331754e+00 -5.5247237475822220e-01
      -3.2586832319524217e-01 -1.1810425362868827e-01
      -5.6951712803533827e-01 -1.1469068342413123e-01
      1.0503528321853538e-01 7.1748942107391167e-01
      -1.0377922061736768e-01 -2.0985413002553646e-01
      -2.1590563552936293e-01 1.6645026797403423e-01
      4.1792599729245916e-01 -8.0108920825343555e-01
      -3.0546639045256097e-01 3.8955440974173600e-01
      -1.8351218423990021e-01 5.3941335650420141e-01
      4.9032945057711114e-01 -2.1842142931250787e-02
      -3.5231407691038102e-01 4.3766103764478931e-01
      1.6621406349927887e+00 6.2374448532156290e-01
      3.6924941152760937e-01 8.7579038884863125e-01
      4.4396866673571206e-01 -2.9817925772124576e-01
      -1.4921726372559962e+00 -2.7232446532899335e-01
      4.3378029801337770e-01 4.3149260250839050e-01
      7.0054468734345599e-01 3.5288155899975082e-01
      5.2376608902974464e-01 -1.8649305256189747e-01
      -9.1053116558703157e-02 5.5712391311840270e-01
      -1.5948643101484036e-01 4.8017793614822973e-01
      4.9127142560878467e-01 5.2668505670357579e-01
      7.8225904993715023e-01 1.1517798849680265e-01
      2.5765787970777171e-01 -1.1299990891530169e+00
      5.5662987772226102e-01 2.0445113944816370e-01
      3.8669576858870108e-01 -1.5792051999950329e-01
      -6.5594661307917718e-02 4.4194305965125663e-01
      9.2767975303008163e-02 5.1174144163491433e-02
      3.9087412207354150e-01 -4.0512866525102866e-02
      -4.0720075221188884e-01 2.1427814439593068e-01
      1.2302893359446243e-01 2.5437431581867470e-01
      6.6599401113741918e-01 1.8096102206327437e-02
      4.1343422955232878e-01 1.1209861154458362e-01
      3.7242167021219430e-01 -3.9508733389030548e-01
      -2.6561667612922023e-02 -6.0294209691583930e-02
      3.9376749369491859e-01 -4.4088871757630910e-01
      3.7829925008708049e-01 2.6591998282434509e-01
      -4.1041879054088420e-01 1.9916469399470929e-01
      2.1156256750584609e-01 -7.7692146808242449e-02
      -5.1927160451319077e-01 -2.7765921669500010e-01
      7.8599383066004905e-02 -5.0071899468799780e-02
      -7.8240000412559954e-04 -5.7096373604063255e-01
      -2.0312732203411260e-01 -1.0353722271861446e-01
      1.0203569586567809e-02 4.7196010436776142e-01
      1.4549466186571974e-01 1.2776883579024825e-01
      -8.9327043261051597e-01 -2.1671127116807143e-01
      1.3919989005368538e-01 1.2433146553764911e-01
      7.0155533736769760e-01 -3.9463850072831952e-01
      -5.5448741950139702e-01 8.7442473690733546e-01
      4.6295664683062537e-01 1.2710516066886954e-01
      6.9209875879712252e-02 -2.6409128212437094e-01
      6.5192055636624635e-01 2.4807318761520647e-01
      -5.4667494178368170e-01 -4.9901481372093714e-02
      -4.3354543884593622e-01 2.3759217361008564e-01
      -2.3892735328445455e-01 -3.4215991132829043e-01
      9.6633108092930031e-01 1.9096268002026140e-01
      -8.4179591325482458e-03 -5.7845887015606645e-01
      -4.4516377204752805e-01 1.2093362606416436e+00
      -1.6744871085447480e-01 -5.5941288889238150e-01
      3.7613865506973237e-01 -2.2606489796756782e-01
      -2.2224353205077951e-01 2.4333082157442479e-01
      -7.5752662184117525e-02 -3.1405914185633842e-02
      -1.2458230871830506e-01 -3.0803751131494150e-01
      -8.9821179588991593e-02 -6.1295969707047948e-01
      5.4793967850227943e-01 -4.4526528116884884e-01
      3.3638391027410391e-01 1.2349389868643004e-01
      2.0900536209404838e-02 -6.2756863961453496e-02
      -3.1629247662053739e-01 1.6544552868515033e-01
      -6.9041647528947231e-02 -7.7491206077930819e-01
      -5.4357809041885696e-01 1.0900155159734379e-01
      -1.2326387373871826e-01 -7.9952567923328263e-02
      1.9962706361352706e-01 -1.2351696207488584e-01
      3.1079115092787468e-01 -3.7692217917259474e-01
      7.1061326104394723e-02 6.4601759416941384e-01
      -6.5620338114377419e-01 4.1027527521897117e-01
      -6.9864777330632344e-01 3.2799452088729442e-01
      1.5365610895721593e-01 6.0368442756033891e-01
      1.7153602950757815e-01 -1.0612274523557750e+00
      -1.7028363492816923e-01 -3.6894639621085822e-02
      2.0143194250257326e-01 -3.6344771177996127e-01
      -3.3191263247094033e-01 -3.6488626458064229e-02
      -9.5353645726430980e-01 3.4666749503257199e-01
      -2.6480047763219622e-01 -3.3414107720033631e-01
      1.4586106243381097e-01 -1.4364198134936701e+00
      5.1726721347466209e-01 -7.0748707241896602e-01
      1.2993841939520445e-01 3.0712613790813492e-01
      -8.2398619357830938e-02 1.4501223680014372e-01
      1.9230110470163547e-01 7.6082538656756060e-01
      -5.4282799637282642e-01 -1.4240598556242630e-02
      -2.4861650498354831e-01 -2.9616007461531348e-02
      -4.4993022407317795e-01 -1.4982580119176961e-01
      6.9219109055794620e-02 6.1906815465158901e-02
      -2.9493465793356734e-02 2.8404551782793314e-01
      -5.6793898738649051e-01 -2.3306558186044160e-01
      6.5177963594298260e-01 -1.4788937202077415e-01
      -3.0331213431928078e-01 -2.1582261470892736e-01
      1.6731881398301326e-01 -1.5764196046065063e-01
      3.8630335887985190e-01 4.9105483511845882e-01
      1.6777123717232056e-01 -5.0133108967095807e-01
      -7.4456954089967764e-01 1.1686453330062043e+00
      3.6626525633686291e-01 1.1384607969932768e-01
      2.0967230052685228e+00 -6.8938238230499466e-02
      4.0465297217622417e-02 5.3434014498668581e-01
      -5.6155313840410148e-01 1.1996606088788417e+00
      2.2002143377271269e-01 3.5921718545740933e-01
      -2.9368122468161501e-01 -2.9781208979976659e-01
      2.2549005250283483e-01 -3.1846185750995848e-01
      -1.1236845666093158e-01 -2.9091612291043102e-02
      4.0469601129664495e-02 -1.9482179547264944e-01
      1.2952645213781724e-01 8.0605923897453047e-01
      5.9648141002532296e-01 3.0186687454596639e-01
      1.3999119007239151e+00 -6.9753553502578725e-01
      -8.9339819003802268e-01 -3.0602574677172334e-01
      -2.7122488403569905e-01 1.0273188129549236e+00
      -3.1250046269690629e-01 -2.9865167538625903e-01
      4.3042327452771828e-01 -1.7331702773155239e-01
      5.8553506978437753e-01 -1.6758822345400104e-01
      -2.8022482597466949e-02 1.5275194822213056e-01
      -1.0208496278503778e+00 -3.0494895992728416e-01
      2.1954048517858551e-01 2.6798524556030465e-02
      3.2077059296451611e-02 -4.5741744222434134e-02
      9.0850120451427507e-01 -1.0196681245686223e-01
      -1.0436209947415467e+00 -4.3034572358010825e-01
      -3.7376243813605636e-01 -3.3608578339209660e-01
      -1.3385871133000604e-01 3.3539940187341033e-01
      1.6510389600609887e-01 1.7335405807803857e-02
      -2.3560397268019556e-01 1.8772213635081139e-01
      8.7406385197061814e-02 4.2693563792074687e-02
      -7.2214566954573467e-01 3.9489438154827394e-01
      -1.2436710109987911e-01 1.9450808136292547e-01
      6.7079412056332013e-02 -6.8639047016045484e-03
      1.3660837623883457e-01 4.0752987660429352e-01
      4.0640560141523996e-01 6.3608159572293732e-01
      -1.3945534100137030e-01 2.2943101021673526e-01
      3.8048881074460605e-01 2.7205220802598845e-01
      9.5109689637904643e-02 -2.7162926152090083e-01
      -8.5070671146405208e-02 -7.7925225713416937e-02
      -2.6639371621878416e-01 -4.8882131720090510e-01
      8.7829837104860664e-01 -2.9829460583287004e-01
      1.8763961492898937e-01 6.7356554048126671e-01
      4.6846750284401456e-01 1.6769926020177725e-01
      -8.7898093242871422e-01 2.2157852270498732e-01
      1.2078498123397001e-01 -2.7867926609869254e-01
      2.7295812699049699e-01 -1.8999192009833085e-01
      -1.5924764950229330e-02 -1.6231717643569232e-01
      5.6012883226822929e-01 5.1502251797481378e-02
      2.6323016566395485e-01 -4.3085934923176761e-01
      -7.5015823073449905e-01 -7.9692487820759861e-01
      6.1986504476400683e-01 -9.7859014076128925e-01
      -2.5701037270871942e-02 -5.4631767224752448e-01
      -1.5897690933258829e-01 -3.9030074070228971e-01
      -4.5445065967926029e-01 2.6873445525662720e-01
      -1.3975867931455114e-02 -2.7733926681265494e-02
      1.1173064079645963e-01 -2.9794413368332925e-02
      -1.1945211204778905e-01 2.9348082120312974e-01
      1.1710700516039878e-01 4.0811136079037719e-02
      -7.4569144238211593e-02 7.1986375689139737e-02
      -2.7886167106978538e-01 -6.6390581252544811e-01
      4.9200099351528970e-01 1.3961280243190191e-01
      2.5233137054416455e-01 -3.0194612568205431e-01
      1.1041911893526753e-01 1.8693969474415921e-02
      -2.2099910628354271e+00 4.2211765337195402e-02
      -2.7338641188317725e-01 5.7687920537316950e-01
      1.0589941047054176e-01 -5.4824347564530906e-01
      -1.6486958521694578e-01 5.0553394348871652e-03
      4.1871117378844397e-01 -2.5065908799622544e-01
      1.9351272905026887e-01 3.8127314052269573e-02
      -3.6616562614759257e-01 -4.0264374400459352e-01
      7.2451128261429876e-01 3.0483482046246535e-01
      1.7888068889269196e-01 -4.1677850184182957e-01
      2.9302317468481415e-01 -2.7645535530883547e-01
      -1.0130389128564514e+00 2.3196883840610741e-01
      -1.6509200845977490e-01 3.1906628767272116e-01
      -1.4120441174011572e-01 -3.2848659340243791e-01
      1.1789018762684275e-01 2.4634976954079077e-01
      -1.8417878956273478e-01 -1.1429602678579259e-01
      -3.0766431641650271e-01 -1.8177264703979815e-01
      -2.2623682532728354e-01 -1.0505441585538204e+00
      7.2259186269473852e-01 4.5446840082456552e-01
      1.8303985249599858e-01 2.4805570765864546e-01
      5.0318908445427646e-01 -3.5060333511926661e-01
      -5.8358089014830772e-01 7.3379607119518658e-02
      -8.3971804237732961e-01 -4.3889957600876917e-01
      -3.8394995796522280e-01 -2.3257704836640530e-01
      -1.0110110288253227e+00 4.7019671132497337e-01
      1.2517634843617378e+00 -1.6400806667616502e-01
      -3.5414887677831353e-01 -2.5941875379763607e-01
      -3.2390128542490243e-01 5.0693198881248624e-02
      8.4824827094470601e-01 -1.5372306178281944e-01
      -7.3492987901711848e-01 -4.5783689274145173e-01
      5.6047109446972265e-01 -1.5565095789167641e-01
      5.9002679922365320e-01 -1.5211729418902085e+00
      5.9838029382814861e-01 7.4572645490789158e-01
      1.0793440759302466e+00 -2.6401503073609606e-01
      5.3269948966234915e-01 -1.6446946686138519e-01
      6.6124150404850424e-02 -1.4412903837046007e+00
      1.2431276562434519e+00 -4.5597564487815301e-01
      -1.9445434879606158e+00 -1.3830349755219311e+00
      -2.3398236315411719e-01 2.3437470182137227e-02
      -1.5221121336052230e+00 -2.5687788385766547e-01
      2.6130887248218371e-01 -1.5324055344268150e+00</_>
    <_>
      5.2645560778649114e-01 -1.0351030207802470e+00
      -1.0121086703607669e+00 1.6824891469342791e+00
      8.0607481662016534e-01 -1.0145681181586821e+00
      -6.6103721002992832e-02 -9.1838125856122954e-01
      6.0624385506955758e-01 -2.4287287944979796e-01
      1.0578075963299827e+00 1.8961503409680700e+00
      -1.0988599403991586e+00 -5.1125878845650241e-01
      8.6029542959288097e-01 1.3955170969789235e+00
      7.7907326933657184e-01 1.0749069234903001e+00
      1.5525255690393569e+00 2.9948421455212537e-01
      8.1480510057872235e-01 8.8927944498354811e-02
      -1.3630231244437190e+00 -1.9226192044843669e+00
      7.5741111517878490e-01 1.0733454468309906e+00
      1.9147010260861786e-02 -1.7152350288694760e+00
      1.1399333950728472e+00 3.2107061500739659e-01
      2.1151921834138396e-01 -1.3179971930970504e+00
      -1.7025262347228096e+00 -1.1330965181016268e+00
      -5.1319527878711102e-01 7.5919090685392687e-01
      9.0871258091016038e-01 7.2704208028288697e-02
      -4.8029298698105388e-01 -7.1176593000883615e-01
      -1.1197040219313502e-01 -2.8577805686749408e-01
      4.7721214363067088e-02 -1.8280297345165146e+00
      -7.2192924350679988e-01 2.3051707538477825e-01
      5.6503732969415327e-02 -1.2395084212241474e+00
      2.9758428782067248e-01 -9.9983378114424659e-01
      -4.1109701172816182e-01 -7.6169372199067475e-01
      -1.3524824203108070e+00 1.1907695763926947e+00
      1.0179326402269639e+00 8.2132232275658146e-01
      1.5566635865807725e+00 -6.8786051727527198e-01
      -1.4663409171398973e+00 9.7337018704858980e-01
      1.0348367858600134e+00 3.3426829851038586e-01
      -1.1414099398958513e+00 -1.5142461448893716e+00
      3.1762426097082441e-01 -1.0733148820153828e+00
      -1.2156452140404368e+00 1.0111344417899452e-01
      -2.7759393382089534e-02 -1.1645724267388433e+00
      -2.1502206825506434e-01 -1.0881237825612611e+00
      -2.8037080168365969e-01 1.2932519877135276e+00
      1.6659879965102514e-01 1.3143394797012899e+00
      -2.5076381010409678e-02 1.4814359797155779e-01
      7.7072805256927224e-01 4.8851749492972535e-01
      -1.6655261697031098e+00 3.0954335297100405e-01
      8.3796392096061645e-01 4.0689206263128447e-01
      -1.1507484880358605e+00 -1.2897872611632895e+00
      1.9045443010049330e+00 5.4574650732321850e-01
      4.0286451346432567e-01 -8.9217427860241305e-01
      -3.0562859319729224e-01 1.3187277172672152e+00
      9.2487993372129196e-01 8.2424406136696782e-01
      1.3942706064854697e+00 1.1306942300625782e+00
      -2.7625255950363908e-01 5.1586466245949925e-01
      3.6884796867974801e-01 6.0451530707115209e-01
      -6.5280169974141422e-01 -1.1027665043135546e+00
      -7.9400499291051341e-01 -9.9819563555205737e-01
      8.5635929776621178e-01 -1.1906850358004037e+00
      9.8576015009159923e-01 -1.3733807335436106e+00
      -1.0969574851134682e+00 3.6684117801353999e-01
      1.6148478831604147e+00 -4.7409018925369822e-01
      1.0599288260595559e+00 -2.3183371831024274e-01
      -8.9739528324969375e-01 -7.6507359234711059e-01
      4.7144243922796919e-01 -7.7443692935871644e-01
      8.7267782719976217e-01 5.7344094459877093e-01
      2.2071468253093922e+00 -3.2530409137817407e-01
      1.1751180709756361e+00 1.1891008760588042e+00
      1.4868917023731798e+00 1.3241703921224053e+00
      1.0393529790737772e+00 2.4493885847982996e-01
      9.0332159480003532e-02 1.6147609602584119e+00
      9.7810017723931264e-01 1.3098190741498363e+00
      -9.9875805565509168e-01 1.0308920405588844e+00
      -6.5768012157062983e-01 -2.1303682775013019e-01
      1.5266267262502711e+00 3.7306215903027413e-02
      -1.7787019745417076e+00 -9.6776268219996464e-01
      -2.7516840076106130e-01 1.0483433542908986e+00
      -1.2142738024630115e+00 -5.5698998531415045e-01
      -1.0397947038037780e+00 1.0793216056225774e+00
      1.3048826489811609e+00 1.2580852842797781e+00
      1.0491602737158112e+00 1.0127726629660987e+00
      1.0240880655765117e+00 -2.4871241202678712e-01
      1.2165441085387806e-01 7.3379861641267985e-01
      -7.8992111161069822e-01 1.4423580185687022e+00
      -1.2008997713456913e+00 -5.3138913748283056e-01
      -1.9970859041126618e-01 -9.2152933670677817e-01
      -1.7005249830057881e-01 1.2760910631427949e+00
      8.3353582503214396e-01 1.0558010595112644e+00
      1.4454481881261825e+00 1.6586588503161115e+00
      8.6086255221824370e-01 -1.4757289128401022e-01
      -8.7815234898517447e-02 -1.1843100062937719e+00
      1.2699353329541112e+00 -1.3515973957083369e+00
      -1.3060866201137071e+00 3.0467640879228164e-01
      1.1012900720314625e+00 3.8463384246540708e-02
      1.0543479311620928e-01 1.4837685348871854e+00
      1.2998337716714897e-01 2.6014874442370223e-01
      -2.5753889506228256e-01 -8.0538371934078734e-01
      -6.9359162229356186e-01 9.0592322523776081e-01
      -1.5048007873722682e+00 -4.2473484502331654e-01
      -1.8895211213379320e-01 1.0891339856861721e+00
      2.3786671663348491e-01 -2.8941794195338272e-01
      1.4850999674410366e+00 7.9785694511107141e-01
      -4.1300165673441480e-01 9.9187904247145198e-01
      8.4003614938990900e-01 -1.9134850259646774e-01
      1.3893236479332582e+00 -3.5364498262288041e-01
      1.1188215956222349e+00 3.1588005216237325e-01
      -1.4705989041460599e+00 -9.5790530762417714e-01
      -2.0989305304631256e+00 -5.1279787211556138e-01
      -1.4413594487333854e+00 -1.4168708156888137e+00
      -1.3066472571392436e+00 -1.7626848086355207e+00
      -1.7409981945566688e+00 -6.4000382132670919e-01</_></weights></my_nn>
</opencv_storage>
